Language model created by QuickLM on Thu Jan 21 03:55:24 EST 2016
Copyright (c) 1996-2010 Carnegie Mellon University and Alexander I. Rudnicky

The model is in standard ARPA format, designed by Doug Paul while he was at MITRE.

The code that was used to produce this language model is available in Open Source.
Please visit http://www.speech.cs.cmu.edu/tools/ for more information

The (fixed) discount mass is 0.5. The backoffs are computed using the ratio method.
This model based on a corpus of 43 sentences and 36 words

\data\
ngram 1=36
ngram 2=77
ngram 3=53

\1-grams:
-0.8106 </s> -0.3010
-0.8106 <s> -0.2092
-2.4440 ALL -0.2281
-2.4440 BATHROOM -0.2281
-2.4440 BEDROOM -0.2281
-2.4440 CHACON -0.2281
-2.4440 CHANNEL -0.2281
-2.4440 DOWN -0.2281
-2.4440 HELLO -0.2281
-2.4440 IN -0.2281
-2.4440 JARVIS -0.2281
-2.4440 KITCHEN -0.2281
-2.4440 LAMP -0.2281
-2.4440 LED -0.2281
-1.9669 LIGHT -0.2053
-2.4440 LIVINGROOM -0.2281
-2.4440 MOFRERE -0.2281
-2.4440 NO -0.2281
-1.6659 OFF -0.2281
-1.6659 ON -0.2281
-2.4440 ONLY -0.2281
-2.4440 PLEASE -0.2281
-2.4440 PLUG -0.2281
-1.9669 POWER -0.2053
-2.4440 PROJECTOR -0.2281
-2.4440 SCREEN -0.2281
-1.9669 SET -0.2053
-2.4440 SWICTH -0.2916
-2.1430 SWITCH -0.2168
-2.4440 TELEVISION -0.2281
-2.4440 THE -0.2281
-1.9669 TURN -0.2053
-2.4440 TV -0.2281
-2.4440 UP -0.2281
-2.4440 VOLUME -0.2281
-2.4440 YES -0.2281

\2-grams:
-1.9345 <s> ALL 0.0000
-1.9345 <s> BATHROOM 0.0000
-1.9345 <s> BEDROOM 0.0000
-1.9345 <s> CHACON 0.0000
-1.9345 <s> CHANNEL 0.0000
-1.9345 <s> DOWN 0.0000
-1.9345 <s> HELLO 0.0000
-1.9345 <s> IN 0.0000
-1.9345 <s> JARVIS 0.0000
-1.9345 <s> KITCHEN 0.0000
-1.9345 <s> LAMP 0.0000
-1.9345 <s> LED 0.0000
-1.4574 <s> LIGHT 0.0000
-1.9345 <s> LIVINGROOM 0.0000
-1.9345 <s> MOFRERE 0.0000
-1.9345 <s> NO 0.0000
-1.9345 <s> OFF 0.0000
-1.9345 <s> ON 0.0000
-1.9345 <s> ONLY 0.0000
-1.9345 <s> PLEASE 0.0000
-1.9345 <s> PLUG 0.0000
-1.4574 <s> POWER 0.0000
-1.9345 <s> PROJECTOR 0.0000
-1.9345 <s> SCREEN 0.0000
-1.4574 <s> SET 0.0000
-1.9345 <s> SWICTH 0.0000
-1.6335 <s> SWITCH 0.0000
-1.9345 <s> TELEVISION 0.0000
-1.9345 <s> THE 0.0000
-1.4574 <s> TURN 0.0000
-1.9345 <s> TV 0.0000
-1.9345 <s> UP 0.0000
-1.9345 <s> VOLUME 0.0000
-1.9345 <s> YES 0.0000
-0.3010 ALL </s> -0.3010
-0.3010 BATHROOM </s> -0.3010
-0.3010 BEDROOM </s> -0.3010
-0.3010 CHACON </s> -0.3010
-0.3010 CHANNEL </s> -0.3010
-0.3010 DOWN </s> -0.3010
-0.3010 HELLO </s> -0.3010
-0.3010 IN </s> -0.3010
-0.3010 JARVIS </s> -0.3010
-0.3010 KITCHEN </s> -0.3010
-0.3010 LAMP </s> -0.3010
-0.3010 LED </s> -0.3010
-0.7782 LIGHT </s> -0.3010
-0.7782 LIGHT OFF 0.0000
-0.7782 LIGHT ON 0.0000
-0.3010 LIVINGROOM </s> -0.3010
-0.3010 MOFRERE </s> -0.3010
-0.3010 NO </s> -0.3010
-0.3010 OFF </s> -0.3010
-0.3010 ON </s> -0.3010
-0.3010 ONLY </s> -0.3010
-0.3010 PLEASE </s> -0.3010
-0.3010 PLUG </s> -0.3010
-0.7782 POWER </s> -0.3010
-0.7782 POWER OFF 0.0000
-0.7782 POWER ON 0.0000
-0.3010 PROJECTOR </s> -0.3010
-0.3010 SCREEN </s> -0.3010
-0.7782 SET </s> -0.3010
-0.7782 SET OFF 0.0000
-0.7782 SET ON 0.0000
-0.3010 SWICTH ON 0.0000
-0.6021 SWITCH </s> -0.3010
-0.6021 SWITCH OFF 0.0000
-0.3010 TELEVISION </s> -0.3010
-0.3010 THE </s> -0.3010
-0.7782 TURN </s> -0.3010
-0.7782 TURN OFF 0.0000
-0.7782 TURN ON 0.0000
-0.3010 TV </s> -0.3010
-0.3010 UP </s> -0.3010
-0.3010 VOLUME </s> -0.3010
-0.3010 YES </s> -0.3010

\3-grams:
-0.3010 <s> ALL </s>
-0.3010 <s> BATHROOM </s>
-0.3010 <s> BEDROOM </s>
-0.3010 <s> CHACON </s>
-0.3010 <s> CHANNEL </s>
-0.3010 <s> DOWN </s>
-0.3010 <s> HELLO </s>
-0.3010 <s> IN </s>
-0.3010 <s> JARVIS </s>
-0.3010 <s> KITCHEN </s>
-0.3010 <s> LAMP </s>
-0.3010 <s> LED </s>
-0.7782 <s> LIGHT </s>
-0.7782 <s> LIGHT OFF
-0.7782 <s> LIGHT ON
-0.3010 <s> LIVINGROOM </s>
-0.3010 <s> MOFRERE </s>
-0.3010 <s> NO </s>
-0.3010 <s> OFF </s>
-0.3010 <s> ON </s>
-0.3010 <s> ONLY </s>
-0.3010 <s> PLEASE </s>
-0.3010 <s> PLUG </s>
-0.7782 <s> POWER </s>
-0.7782 <s> POWER OFF
-0.7782 <s> POWER ON
-0.3010 <s> PROJECTOR </s>
-0.3010 <s> SCREEN </s>
-0.7782 <s> SET </s>
-0.7782 <s> SET OFF
-0.7782 <s> SET ON
-0.3010 <s> SWICTH ON
-0.6021 <s> SWITCH </s>
-0.6021 <s> SWITCH OFF
-0.3010 <s> TELEVISION </s>
-0.3010 <s> THE </s>
-0.7782 <s> TURN </s>
-0.7782 <s> TURN OFF
-0.7782 <s> TURN ON
-0.3010 <s> TV </s>
-0.3010 <s> UP </s>
-0.3010 <s> VOLUME </s>
-0.3010 <s> YES </s>
-0.3010 LIGHT OFF </s>
-0.3010 LIGHT ON </s>
-0.3010 POWER OFF </s>
-0.3010 POWER ON </s>
-0.3010 SET OFF </s>
-0.3010 SET ON </s>
-0.3010 SWICTH ON </s>
-0.3010 SWITCH OFF </s>
-0.3010 TURN OFF </s>
-0.3010 TURN ON </s>

\end\
