Language model created by QuickLM on Wed Jan 20 03:47:15 EST 2016
Copyright (c) 1996-2010 Carnegie Mellon University and Alexander I. Rudnicky

The model is in standard ARPA format, designed by Doug Paul while he was at MITRE.

The code that was used to produce this language model is available in Open Source.
Please visit http://www.speech.cs.cmu.edu/tools/ for more information

The (fixed) discount mass is 0.5. The backoffs are computed using the ratio method.
This model based on a corpus of 77 sentences and 74 words

\data\
ngram 1=74
ngram 2=149
ngram 3=84

\1-grams:
-0.7911 </s> -0.3010
-0.7911 <s> -0.2167
-2.6776 A -0.2244
-2.6776 ALL -0.2244
-2.6776 AN -0.2244
-2.6776 AND -0.2244
-2.6776 AS -0.2244
-2.6776 BATHROOM -0.2244
-2.6776 BEDROOM -0.2244
-2.6776 CHACON -0.2244
-2.6776 CHANNEL -0.2244
-2.6776 COULD -0.2244
-2.6776 DID -0.2244
-2.6776 DO -0.2244
-2.6776 DOWN -0.2244
-2.6776 EIGHT -0.2244
-2.6776 FIVE -0.2244
-2.6776 FOR -0.2244
-2.6776 FOUR -0.2244
-2.6776 HELLO -0.2244
-2.6776 I -0.2244
-2.6776 IF -0.2244
-2.6776 IN -0.2244
-2.6776 IT -0.2244
-2.6776 JARVIS -0.2244
-2.6776 JIMMY -0.2244
-2.6776 KITCHEN -0.2244
-2.6776 LAMP -0.2244
-2.6776 LED -0.2244
-2.2005 LIGHT -0.2156
-2.6776 LIKE -0.2244
-2.6776 LIVINGROOM -0.2244
-2.6776 MAYBE -0.2244
-2.6776 MOFRERE -0.2244
-2.6776 NINE -0.2244
-2.6776 NO -0.2244
-2.6776 NOT -0.2244
-2.6776 OF -0.2244
-2.0755 OFF -0.2244
-2.6776 OK -0.2244
-2.6776 OKEY -0.2992
-2.0755 ON -0.2244
-2.6776 ONE -0.2244
-2.6776 ONLY -0.2244
-2.6776 OR -0.2244
-2.6776 PLUG -0.2244
-2.2005 POWER -0.2156
-2.6776 PROJECTOR -0.2244
-2.3766 ROS -0.2244
-2.6776 SCREEN -0.2244
-2.6776 SET -0.2244
-2.6776 SEVEN -0.2244
-2.6776 SIX -0.2244
-2.6776 SWICTH -0.2974
-2.3766 SWITCH -0.2200
-2.6776 TELEVISION -0.2244
-2.6776 TEN -0.2244
-2.6776 THAT -0.2244
-2.6776 THE -0.2244
-2.6776 THESE -0.2244
-2.6776 THIS -0.2244
-2.6776 THREE -0.2244
-2.6776 TO -0.2244
-2.6776 TURN -0.2244
-2.6776 TV -0.2244
-2.6776 TWO -0.2244
-2.6776 UP -0.2244
-2.6776 VOLUME -0.2244
-2.6776 WANT -0.2244
-2.6776 WE -0.2244
-2.6776 WOULD -0.2244
-2.6776 YES -0.2244
-2.6776 YOU -0.2244
-2.6776 ZERO -0.2244

\2-grams:
-2.1875 <s> A 0.0000
-2.1875 <s> ALL 0.0000
-2.1875 <s> AN 0.0000
-2.1875 <s> AND 0.0000
-2.1875 <s> AS 0.0000
-2.1875 <s> BATHROOM 0.0000
-2.1875 <s> BEDROOM 0.0000
-2.1875 <s> CHACON 0.0000
-2.1875 <s> CHANNEL 0.0000
-2.1875 <s> COULD 0.0000
-2.1875 <s> DID 0.0000
-2.1875 <s> DO 0.0000
-2.1875 <s> DOWN 0.0000
-2.1875 <s> EIGHT 0.0000
-2.1875 <s> FIVE 0.0000
-2.1875 <s> FOR 0.0000
-2.1875 <s> FOUR 0.0000
-2.1875 <s> HELLO 0.0000
-2.1875 <s> I 0.0000
-2.1875 <s> IF 0.0000
-2.1875 <s> IN 0.0000
-2.1875 <s> IT 0.0000
-2.1875 <s> JARVIS 0.0000
-2.1875 <s> JIMMY 0.0000
-2.1875 <s> KITCHEN 0.0000
-2.1875 <s> LAMP 0.0000
-2.1875 <s> LED 0.0000
-1.7104 <s> LIGHT 0.0000
-2.1875 <s> LIKE 0.0000
-2.1875 <s> LIVINGROOM 0.0000
-2.1875 <s> MAYBE 0.0000
-2.1875 <s> MOFRERE 0.0000
-2.1875 <s> NINE 0.0000
-2.1875 <s> NO 0.0000
-2.1875 <s> NOT 0.0000
-2.1875 <s> OF 0.0000
-2.1875 <s> OFF 0.0000
-2.1875 <s> OK 0.0000
-2.1875 <s> OKEY 0.0000
-2.1875 <s> ON 0.0000
-2.1875 <s> ONE 0.0000
-2.1875 <s> ONLY 0.0000
-2.1875 <s> OR 0.0000
-2.1875 <s> PLUG 0.0000
-1.7104 <s> POWER 0.0000
-2.1875 <s> PROJECTOR 0.0000
-2.1875 <s> ROS 0.0000
-2.1875 <s> SCREEN 0.0000
-2.1875 <s> SET 0.0000
-2.1875 <s> SEVEN 0.0000
-2.1875 <s> SIX 0.0000
-2.1875 <s> SWICTH 0.0000
-1.8865 <s> SWITCH 0.0000
-2.1875 <s> TELEVISION 0.0000
-2.1875 <s> TEN 0.0000
-2.1875 <s> THAT 0.0000
-2.1875 <s> THE 0.0000
-2.1875 <s> THESE 0.0000
-2.1875 <s> THIS 0.0000
-2.1875 <s> THREE 0.0000
-2.1875 <s> TO 0.0000
-2.1875 <s> TURN 0.0000
-2.1875 <s> TV 0.0000
-2.1875 <s> TWO 0.0000
-2.1875 <s> UP 0.0000
-2.1875 <s> VOLUME 0.0000
-2.1875 <s> WANT 0.0000
-2.1875 <s> WE 0.0000
-2.1875 <s> WOULD 0.0000
-2.1875 <s> YES 0.0000
-2.1875 <s> YOU 0.0000
-2.1875 <s> ZERO 0.0000
-0.3010 A </s> -0.3010
-0.3010 ALL </s> -0.3010
-0.3010 AN </s> -0.3010
-0.3010 AND </s> -0.3010
-0.3010 AS </s> -0.3010
-0.3010 BATHROOM </s> -0.3010
-0.3010 BEDROOM </s> -0.3010
-0.3010 CHACON </s> -0.3010
-0.3010 CHANNEL </s> -0.3010
-0.3010 COULD </s> -0.3010
-0.3010 DID </s> -0.3010
-0.3010 DO </s> -0.3010
-0.3010 DOWN </s> -0.3010
-0.3010 EIGHT </s> -0.3010
-0.3010 FIVE </s> -0.3010
-0.3010 FOR </s> -0.3010
-0.3010 FOUR </s> -0.3010
-0.3010 HELLO </s> -0.3010
-0.3010 I </s> -0.3010
-0.3010 IF </s> -0.3010
-0.3010 IN </s> -0.3010
-0.3010 IT </s> -0.3010
-0.3010 JARVIS </s> -0.3010
-0.3010 JIMMY </s> -0.3010
-0.3010 KITCHEN </s> -0.3010
-0.3010 LAMP </s> -0.3010
-0.3010 LED </s> -0.3010
-0.7782 LIGHT </s> -0.3010
-0.7782 LIGHT OFF 0.0000
-0.7782 LIGHT ON 0.0000
-0.3010 LIKE </s> -0.3010
-0.3010 LIVINGROOM </s> -0.3010
-0.3010 MAYBE </s> -0.3010
-0.3010 MOFRERE </s> -0.3010
-0.3010 NINE </s> -0.3010
-0.3010 NO </s> -0.3010
-0.3010 NOT </s> -0.3010
-0.3010 OF </s> -0.3010
-0.3010 OFF </s> -0.3010
-0.3010 OK </s> -0.3010
-0.3010 OKEY ROS 0.0000
-0.3010 ON </s> -0.3010
-0.3010 ONE </s> -0.3010
-0.3010 ONLY </s> -0.3010
-0.3010 OR </s> -0.3010
-0.3010 PLUG </s> -0.3010
-0.7782 POWER </s> -0.3010
-0.7782 POWER OFF 0.0000
-0.7782 POWER ON 0.0000
-0.3010 PROJECTOR </s> -0.3010
-0.3010 ROS </s> -0.3010
-0.3010 SCREEN </s> -0.3010
-0.3010 SET </s> -0.3010
-0.3010 SEVEN </s> -0.3010
-0.3010 SIX </s> -0.3010
-0.3010 SWICTH ON 0.0000
-0.6021 SWITCH </s> -0.3010
-0.6021 SWITCH OFF 0.0000
-0.3010 TELEVISION </s> -0.3010
-0.3010 TEN </s> -0.3010
-0.3010 THAT </s> -0.3010
-0.3010 THE </s> -0.3010
-0.3010 THESE </s> -0.3010
-0.3010 THIS </s> -0.3010
-0.3010 THREE </s> -0.3010
-0.3010 TO </s> -0.3010
-0.3010 TURN </s> -0.3010
-0.3010 TV </s> -0.3010
-0.3010 TWO </s> -0.3010
-0.3010 UP </s> -0.3010
-0.3010 VOLUME </s> -0.3010
-0.3010 WANT </s> -0.3010
-0.3010 WE </s> -0.3010
-0.3010 WOULD </s> -0.3010
-0.3010 YES </s> -0.3010
-0.3010 YOU </s> -0.3010
-0.3010 ZERO </s> -0.3010

\3-grams:
-0.3010 <s> A </s>
-0.3010 <s> ALL </s>
-0.3010 <s> AN </s>
-0.3010 <s> AND </s>
-0.3010 <s> AS </s>
-0.3010 <s> BATHROOM </s>
-0.3010 <s> BEDROOM </s>
-0.3010 <s> CHACON </s>
-0.3010 <s> CHANNEL </s>
-0.3010 <s> COULD </s>
-0.3010 <s> DID </s>
-0.3010 <s> DO </s>
-0.3010 <s> DOWN </s>
-0.3010 <s> EIGHT </s>
-0.3010 <s> FIVE </s>
-0.3010 <s> FOR </s>
-0.3010 <s> FOUR </s>
-0.3010 <s> HELLO </s>
-0.3010 <s> I </s>
-0.3010 <s> IF </s>
-0.3010 <s> IN </s>
-0.3010 <s> IT </s>
-0.3010 <s> JARVIS </s>
-0.3010 <s> JIMMY </s>
-0.3010 <s> KITCHEN </s>
-0.3010 <s> LAMP </s>
-0.3010 <s> LED </s>
-0.7782 <s> LIGHT </s>
-0.7782 <s> LIGHT OFF
-0.7782 <s> LIGHT ON
-0.3010 <s> LIKE </s>
-0.3010 <s> LIVINGROOM </s>
-0.3010 <s> MAYBE </s>
-0.3010 <s> MOFRERE </s>
-0.3010 <s> NINE </s>
-0.3010 <s> NO </s>
-0.3010 <s> NOT </s>
-0.3010 <s> OF </s>
-0.3010 <s> OFF </s>
-0.3010 <s> OK </s>
-0.3010 <s> OKEY ROS
-0.3010 <s> ON </s>
-0.3010 <s> ONE </s>
-0.3010 <s> ONLY </s>
-0.3010 <s> OR </s>
-0.3010 <s> PLUG </s>
-0.7782 <s> POWER </s>
-0.7782 <s> POWER OFF
-0.7782 <s> POWER ON
-0.3010 <s> PROJECTOR </s>
-0.3010 <s> ROS </s>
-0.3010 <s> SCREEN </s>
-0.3010 <s> SET </s>
-0.3010 <s> SEVEN </s>
-0.3010 <s> SIX </s>
-0.3010 <s> SWICTH ON
-0.6021 <s> SWITCH </s>
-0.6021 <s> SWITCH OFF
-0.3010 <s> TELEVISION </s>
-0.3010 <s> TEN </s>
-0.3010 <s> THAT </s>
-0.3010 <s> THE </s>
-0.3010 <s> THESE </s>
-0.3010 <s> THIS </s>
-0.3010 <s> THREE </s>
-0.3010 <s> TO </s>
-0.3010 <s> TURN </s>
-0.3010 <s> TV </s>
-0.3010 <s> TWO </s>
-0.3010 <s> UP </s>
-0.3010 <s> VOLUME </s>
-0.3010 <s> WANT </s>
-0.3010 <s> WE </s>
-0.3010 <s> WOULD </s>
-0.3010 <s> YES </s>
-0.3010 <s> YOU </s>
-0.3010 <s> ZERO </s>
-0.3010 LIGHT OFF </s>
-0.3010 LIGHT ON </s>
-0.3010 OKEY ROS </s>
-0.3010 POWER OFF </s>
-0.3010 POWER ON </s>
-0.3010 SWICTH ON </s>
-0.3010 SWITCH OFF </s>

\end\
