Language model created by QuickLM on Fri Jan  8 05:13:39 EST 2016
Copyright (c) 1996-2010 Carnegie Mellon University and Alexander I. Rudnicky

The model is in standard ARPA format, designed by Doug Paul while he was at MITRE.

The code that was used to produce this language model is available in Open Source.
Please visit http://www.speech.cs.cmu.edu/tools/ for more information

The (fixed) discount mass is 0.5. The backoffs are computed using the ratio method.
This model based on a corpus of 7 sentences and 7 words

\data\
ngram 1=7
ngram 2=12
ngram 3=9

\1-grams:
-0.8177 </s> -0.3010
-0.8177 <s> -0.2065
-1.6628 HELLO -0.2293
-1.1856 LIGHT -0.1823
-1.6628 MOFRERE -0.2293
-1.3617 OFF -0.2293
-1.3617 ON -0.2293

\2-grams:
-1.1461 <s> HELLO 0.0000
-0.6690 <s> LIGHT 0.0000
-1.1461 <s> MOFRERE 0.0000
-1.1461 <s> OFF 0.0000
-1.1461 <s> ON 0.0000
-0.3010 HELLO </s> -0.3010
-0.7782 LIGHT </s> -0.3010
-0.7782 LIGHT OFF 0.0000
-0.7782 LIGHT ON 0.0000
-0.3010 MOFRERE </s> -0.3010
-0.3010 OFF </s> -0.3010
-0.3010 ON </s> -0.3010

\3-grams:
-0.3010 <s> HELLO </s>
-0.7782 <s> LIGHT </s>
-0.7782 <s> LIGHT OFF
-0.7782 <s> LIGHT ON
-0.3010 <s> MOFRERE </s>
-0.3010 <s> OFF </s>
-0.3010 <s> ON </s>
-0.3010 LIGHT OFF </s>
-0.3010 LIGHT ON </s>

\end\
